16 32
2 -0.37991878 -0.26372242 0.30689526 -0.077737674 0.08794674 -0.15823352 -0.0615734 0.08748606 -0.09715053 -0.07786057 0.10519049 0.060826093 -0.28093404 -0.21716402 0.14188087 -0.3032526 0.004455885 -0.22522114 0.115956366 -0.41235435 0.0911465 0.17849 0.033118457 0.16057096 0.046542704 -0.21763812 0.024769858 0.28015307 0.11040904 0.11093597 0.011638607 -0.050353948
3 -0.45154673 -0.27794644 0.29053932 -0.0948893 0.09793112 -0.1472183 -0.04700467 -0.033704143 -0.08071401 -0.06297435 0.16175537 0.054755464 -0.28822953 -0.110022254 0.13434587 -0.24276064 -0.054162897 -0.23689386 0.08573407 -0.40982515 0.0788471 0.20898178 0.017971765 0.14143609 0.02492261 -0.21832696 0.044646323 0.22384506 0.0885635 0.055788655 -0.031751953 -0.009403164
7 -0.18094724 -0.26511458 0.23158087 -0.06814809 0.04887843 0.07634774 0.0822739 0.19498678 0.12493486 -0.16699146 -0.0638126 0.070744574 -0.2703288 -0.2661306 0.23879081 -0.2943609 0.14498101 -0.2335588 -0.02030466 -0.3611283 0.1619811 0.032634363 0.05756677 0.30704316 0.18064468 -0.18755473 -0.07969657 0.1651677 -0.042196404 0.0013132198 -0.026247565 -0.0038223134
8 -0.17941539 -0.32190627 0.22836882 -0.055202268 0.03514022 0.099215485 0.1630122 0.12703003 0.1234912 -0.1154673 -0.091106854 0.095374525 -0.31495866 -0.18289578 0.29641107 -0.31716615 0.121266656 -0.29067016 -0.017185437 -0.33004892 0.12711138 0.07054791 0.040769115 0.25160018 0.23199026 -0.14224946 -0.062965356 0.1341091 -0.10533305 0.0047346167 -0.064993255 0.020179719
5 -0.16498685 -0.26054943 0.03528703 -0.0370353 0.13003324 0.12396311 0.25491202 -0.04145063 0.19291535 -0.21427222 0.15736991 0.19284843 -0.3309313 -0.09431251 0.26737833 -0.26955616 -0.07812818 -0.3276536 -0.16755266 -0.30122262 0.17059325 0.18197604 -0.02811714 0.29404554 0.1647228 -0.2620102 -0.08008237 -0.078257434 -0.048565134 -0.07102972 -0.16613647 -0.048477758
11 -0.54940826 -0.29462412 0.4069351 -0.101674944 0.10639187 -0.28093076 -0.21525873 0.041336536 -0.20024921 -0.028436635 0.13490444 0.006520328 -0.2790635 -0.14463139 0.09428592 -0.26794633 -0.038575843 -0.16723144 0.21377274 -0.46999872 0.07383102 0.2031847 0.057151027 0.09253472 -0.06982476 -0.22208805 0.090472594 0.37374145 0.13551365 0.1339953 0.08456984 -0.034864925
1 -0.3063002 -0.28963816 0.24681556 -0.09447228 0.07019954 -0.06322198 0.03363825 0.0812128 0.05292281 -0.10617152 0.040803134 0.06831464 -0.2576298 -0.19051582 0.17322387 -0.28315476 0.0639118 -0.2511772 0.058430333 -0.35702682 0.122846566 0.12076456 0.023696965 0.23364872 0.13382748 -0.19442885 -0.011339969 0.20687896 0.032270122 0.0065031257 -0.070272036 0.011921436
15 -0.1731177 -0.24106242 0.062097467 -0.117741555 0.092833854 0.2829395 0.32436886 -0.117918566 0.29083905 -0.2349299 0.04635441 0.16348611 -0.22375439 0.06374185 0.30065534 -0.20228049 -0.09023753 -0.39985496 -0.31996775 -0.35799727 0.248021 0.12743959 0.049128957 0.35550526 0.20558111 -0.20598288 -0.15716287 -0.1460291 -0.13610512 -0.3169594 -0.27745742 0.108888164
10 -0.2220753 -0.20198406 0.0806813 -0.071785465 0.12658551 0.20797075 0.22717571 -0.056474663 0.2016221 -0.24517335 0.14573461 0.1617034 -0.2791951 -0.013586778 0.22402743 -0.18158033 -0.09874097 -0.29027525 -0.2539715 -0.3791465 0.20081577 0.14752677 0.062163405 0.3132294 0.092969544 -0.24236879 -0.09016135 -0.105912134 -0.049206223 -0.18323547 -0.19622444 -0.0038711198
13 -0.44908863 -0.2467204 0.35814312 -0.10514116 0.058284704 -0.25467843 -0.14786172 0.07415065 -0.13304776 -0.039770313 0.14153774 0.019247783 -0.26368722 -0.24073838 0.099413574 -0.29364014 0.010103798 -0.22855893 0.18543632 -0.4640132 0.08668318 0.1802684 0.023429988 0.146029 0.02201567 -0.22636254 0.06881212 0.3772701 0.18111911 0.105380625 -0.012556722 -0.022450328
12 -0.46014452 -0.26093283 0.33562824 -0.09255655 0.0622771 -0.21487114 -0.13713637 0.044061977 -0.14567971 -0.038170658 0.17636788 0.0489671 -0.29572132 -0.21574807 0.11218474 -0.26295826 -0.022693379 -0.1997154 0.1690731 -0.45765492 0.066687204 0.20292896 0.036151886 0.11187713 -0.005372492 -0.22773552 0.067076884 0.3179806 0.15312055 0.1357498 0.025109172 -0.035302054
4 -0.42191654 -0.16795434 0.29707858 -0.078464985 0.088600926 -0.24981536 -0.15114672 0.07025637 -0.10813627 -0.09497524 0.22045296 0.036839854 -0.24650203 -0.23018824 0.06665541 -0.26583153 -0.019594336 -0.23503035 0.12995245 -0.44692966 0.099324286 0.18073002 0.008419024 0.1706484 0.018568 -0.25920996 0.04802871 0.31862593 0.2220142 0.06684759 -0.052078195 -0.065955155
6 -0.123674594 -0.24553667 0.116274685 -0.044537228 0.105222195 0.29279533 0.27940342 0.04417465 0.21274874 -0.23708834 -0.00849103 0.15634684 -0.30192196 -0.08799382 0.32461104 -0.24282803 -0.024895448 -0.31940824 -0.26098266 -0.37780178 0.20438623 0.092229545 0.07144998 0.317792 0.17828579 -0.20947452 -0.13223398 -0.10850923 -0.1475008 -0.114442274 -0.11800677 -0.0050837654
16 -0.06351078 -0.16966479 0.020183597 -0.07232034 0.072735175 0.16948141 0.3369602 -0.04401518 0.2670351 -0.20974787 0.032340076 0.18751942 -0.21887365 -0.024644656 0.28423348 -0.28474438 -0.048481748 -0.46974137 -0.27380726 -0.30551124 0.21136232 0.14287814 -0.0035493826 0.35225132 0.3103199 -0.20163035 -0.13256767 -0.07253187 -0.06462597 -0.26573232 -0.32963943 0.05616905
14 -0.26707637 -0.2798765 0.28396147 -0.077778384 0.06519266 -0.024031507 0.01899054 0.1330321 0.01599957 -0.102394395 -0.031771187 0.068512425 -0.27362058 -0.21384226 0.21865693 -0.3012557 0.081483744 -0.24928468 0.043154772 -0.38103977 0.13404597 0.10663852 0.043741107 0.2258273 0.13277592 -0.17487444 -0.026167616 0.22600201 -0.011886798 0.05151428 -0.0023126511 -0.00639723
9 -0.46657187 -0.2652192 0.308467 -0.10121071 0.089458235 -0.14911367 -0.09546835 0.008871877 -0.08846225 -0.064151324 0.14506106 0.049273625 -0.27748904 -0.13251053 0.11357975 -0.23317437 -0.044314343 -0.18237598 0.09823816 -0.42763597 0.070431404 0.19808918 0.06565834 0.120480254 -0.023277862 -0.19900489 0.04578722 0.24123815 0.090787895 0.07038121 0.0077835484 -0.00018301947
