10 128
6 0.006356025 -0.15404545 -0.037081838 -0.09521878 -0.072633564 0.035409994 0.048942976 0.15158136 0.13645667 -0.027116936 0.027090268 0.07586719 0.045991775 -0.23834653 0.10993996 -0.16388191 0.05261145 -0.06036917 -0.010077357 -0.073246114 -0.0680408 -0.03934552 0.061112054 -0.011818252 0.034038763 -0.04441093 -0.03619008 -0.134106 -0.048830003 -0.006725406 0.04862863 0.12259763 -0.10226549 -0.057636842 0.02356943 -0.14345257 0.046702173 -0.035397362 0.007747482 -0.16763453 -0.23043512 -0.09151487 0.1285414 0.16543882 -0.18427713 0.029458154 -0.019363685 -0.17557709 0.094256416 0.07057679 -0.1857842 0.110921435 -0.11996168 0.13721675 -0.09229683 -0.034446694 -0.06747551 0.08555635 -0.0654831 0.046797857 0.08987268 -0.10198068 -0.06874099 0.11511925 -0.04511629 -0.061562657 0.045918927 0.016934386 -0.19944078 -0.13769542 -0.047408517 0.05648125 0.102290265 0.07619497 0.09139098 -0.0914345 0.03545122 0.06459493 -0.040560994 -0.10221912 -0.017332755 -0.046990577 -0.03981374 0.04401102 -0.068107344 -0.12330076 -0.00034348728 -0.026824135 0.048794292 0.050090067 0.18755573 0.09044647 0.17149143 0.0049879095 -0.14558536 0.027425863 0.0003503409 -0.2216852 0.10292666 0.047006834 -0.06114335 -0.08786958 -0.013028961 -0.038215656 -0.024282675 0.044587966 0.079871275 0.2654433 0.012525227 -0.013880235 -0.014016147 0.122456014 0.08215663 -0.06054085 -0.19762085 -0.038439997 0.05719592 -0.0036906865 -0.1936423 0.07706003 -0.15899162 0.002939286 -0.011481772 -0.12526684 -0.23608194 0.07019559 0.18357466 0.10235564
1 -0.004471699 -0.14915824 -0.03736489 -0.09094524 -0.051179584 0.0156894 0.050254162 0.14086938 0.13916 -0.039528895 0.04045154 0.08112893 0.03344732 -0.22808425 0.10018408 -0.18018861 0.058401655 -0.07271995 -0.005287782 -0.047625445 -0.057353344 -0.016619388 0.03983308 0.004666119 0.045742802 -0.03580905 -0.046459205 -0.1078583 -0.033327352 -0.009360658 0.021110455 0.10750034 -0.11641926 -0.03515834 0.016625172 -0.15894298 0.05921059 -0.027561849 0.026594147 -0.1287086 -0.19743241 -0.113106236 0.113830544 0.18427347 -0.17085595 0.015013334 -0.026818093 -0.17430069 0.062373217 0.05343861 -0.1666831 0.09509569 -0.09030276 0.13109095 -0.10265782 -0.03518778 -0.05956606 0.08314121 -0.062175177 0.036282714 0.070041336 -0.12051032 -0.056333367 0.12669383 -0.04226699 -0.046530787 0.06392311 0.021858862 -0.1762154 -0.14764543 -0.052901585 0.056158114 0.095765494 0.043059878 0.08967388 -0.1002942 0.034826104 0.043130256 -0.045432664 -0.104473695 -0.010108113 -0.06621599 -0.060792 0.034800585 -0.07798765 -0.11291957 0.016504353 -0.011574577 0.061667677 0.04365818 0.171948 0.0715612 0.14810209 0.0016980744 -0.15925705 0.027312765 -0.032245472 -0.21502821 0.1057151 0.057712436 -0.09016346 -0.07818492 -0.022790398 -0.04605722 -0.026996417 0.040165454 0.0774174 0.23627882 -0.012835218 -0.028221272 -0.019840235 0.108690076 0.092190854 -0.06343986 -0.20062174 -0.015672918 0.056585297 0.014921944 -0.17173575 0.07776964 -0.15314642 0.0027513509 -0.024220252 -0.1313584 -0.23606361 0.06729162 0.17347969 0.12383969
7 0.009588724 -0.14326413 -0.038134947 -0.092931435 -0.07051483 0.033542056 0.046256807 0.14589858 0.12968773 -0.02838207 0.023228012 0.07342553 0.04693626 -0.23094335 0.10275579 -0.15673165 0.0503898 -0.0558931 -0.013271207 -0.069243334 -0.061778255 -0.036637798 0.060174376 -0.005592362 0.033293556 -0.044638477 -0.03996131 -0.12452063 -0.043878153 -0.008358784 0.04855248 0.11790642 -0.103575036 -0.054261792 0.015614836 -0.13511984 0.041257188 -0.039800532 0.0094824815 -0.15900108 -0.21811102 -0.08641205 0.12431175 0.16046493 -0.1739731 0.026148878 -0.019193368 -0.16578604 0.09049114 0.06418566 -0.17509751 0.103708565 -0.11160867 0.13659614 -0.09505566 -0.029326852 -0.060343105 0.08263688 -0.06167949 0.053160515 0.08324633 -0.095361486 -0.06506427 0.10873894 -0.04471194 -0.051299214 0.0448199 0.020370949 -0.18896711 -0.13297749 -0.04634125 0.055708885 0.097976156 0.07050625 0.08552365 -0.08410684 0.03550034 0.059862692 -0.03592094 -0.100234024 -0.016132914 -0.04436465 -0.04245954 0.043443486 -0.06386319 -0.11591649 -0.005138335 -0.024525234 0.047285523 0.048301022 0.17899865 0.087061286 0.16255197 -0.00014631124 -0.14183715 0.029923238 -4.2504937e-05 -0.21145451 0.09274652 0.048965547 -0.06135973 -0.08062366 -0.0135934325 -0.039505705 -0.023526128 0.037576504 0.074487105 0.25240007 0.011859762 -0.011826804 -0.012852571 0.11817568 0.07758553 -0.06079384 -0.19016823 -0.038622305 0.053598426 -0.0016573167 -0.18730061 0.07530006 -0.15230303 0.0058892597 -0.010513873 -0.118751794 -0.22398826 0.06555717 0.17785808 0.10326188
9 0.010039307 -0.14268363 -0.050024934 -0.09366877 -0.07079448 0.03829305 0.05076335 0.14442697 0.13321161 -0.032086134 0.03061097 0.0815714 0.04217622 -0.23926885 0.103895135 -0.16061896 0.04322638 -0.05114804 -0.023878178 -0.067894675 -0.07283442 -0.027193794 0.06697954 -0.010278555 0.028639087 -0.04579863 -0.04377972 -0.14173946 -0.047255512 -0.0003645013 0.055719838 0.12125127 -0.110775255 -0.057359952 0.028877249 -0.1391283 0.05241299 -0.035500597 -0.0035800731 -0.15323357 -0.22171894 -0.09125012 0.12480285 0.1629942 -0.18549527 0.025812184 -0.013756089 -0.17397183 0.08380694 0.054607466 -0.1776639 0.105360195 -0.11904164 0.13090095 -0.08206544 -0.037788272 -0.06329255 0.08098975 -0.0619479 0.04729575 0.079075925 -0.09064141 -0.06892239 0.11502996 -0.04126572 -0.059239943 0.05059897 0.015954955 -0.19033243 -0.13469581 -0.042434845 0.066665895 0.10095824 0.070355654 0.09649563 -0.08898712 0.027479755 0.067493685 -0.044397324 -0.09554876 -0.01360196 -0.039449852 -0.049248353 0.037301168 -0.06470147 -0.11627591 -0.0034269462 -0.021439608 0.039878976 0.04971805 0.18603402 0.088201255 0.17376202 0.008958304 -0.14673156 0.025491806 0.002171335 -0.20818476 0.096269384 0.054905046 -0.06753199 -0.091795854 -0.02276614 -0.040677518 -0.026275815 0.036811106 0.07219973 0.2628057 0.0064005214 -0.018989619 -0.006989175 0.12246653 0.08518405 -0.06942577 -0.19030115 -0.0412026 0.047880407 0.0038239553 -0.18443131 0.08368689 -0.15820205 -0.0025024181 -0.010260111 -0.12207497 -0.23192814 0.07850795 0.17886978 0.10771843
2 0.010711709 -0.14392711 -0.041532792 -0.09145916 -0.0670536 0.03240952 0.051544454 0.1424101 0.124389306 -0.031761732 0.029239217 0.07840523 0.041318547 -0.23058817 0.10242691 -0.16498151 0.047222856 -0.056044433 -0.015394699 -0.06289113 -0.06300969 -0.027840026 0.057982385 -0.004625818 0.030859029 -0.044115566 -0.043442637 -0.124491654 -0.039816376 -0.003192344 0.047357395 0.11095824 -0.110160515 -0.044724364 0.016932163 -0.13677914 0.050908733 -0.036522582 0.011376591 -0.14836857 -0.20733055 -0.088318154 0.119730055 0.16219842 -0.17700718 0.024852188 -0.020661047 -0.16968662 0.08068138 0.05654366 -0.16923064 0.095592715 -0.10428729 0.13308097 -0.095160216 -0.0345038 -0.058250014 0.084109545 -0.063544124 0.04957935 0.073139854 -0.095447674 -0.06207539 0.110683925 -0.043493133 -0.050401624 0.049970165 0.015104266 -0.18654533 -0.13766848 -0.04818512 0.057562698 0.09786114 0.06356418 0.08735841 -0.08475905 0.03308435 0.054442994 -0.039422303 -0.09960368 -0.01659356 -0.048473217 -0.050957203 0.041579444 -0.06360172 -0.108276024 0.0011499326 -0.01993988 0.051371258 0.042381056 0.17902923 0.08656278 0.15955736 -0.0016457624 -0.15020119 0.029618721 -0.010305581 -0.20968296 0.093357466 0.054047186 -0.06368623 -0.086320736 -0.017123045 -0.045847747 -0.025887193 0.032915108 0.0792051 0.25078335 0.0026093917 -0.016963616 -0.017537175 0.11843933 0.08367702 -0.066133514 -0.19352622 -0.032202125 0.053528365 0.0039876625 -0.18108541 0.07567602 -0.15407339 -0.001446575 -0.010043143 -0.12628937 -0.22372834 0.07084031 0.179061 0.10701097
5 -0.023645343 -0.09397836 -0.09360423 -0.0017324389 0.0740259 -0.050043404 0.10639871 0.05164366 0.128245 -0.1296664 0.18242602 0.13096744 -0.10989949 -0.18035085 0.088524155 -0.28226468 0.058954995 -0.16270566 -0.017519547 0.1262293 -0.03675451 0.13848722 -0.11638101 0.07445643 0.14629735 -0.016798561 -0.14102285 -0.034592547 0.047726654 0.04575808 -0.108918585 -0.03980575 -0.21129401 0.101902924 0.021478567 -0.24702255 0.21615179 0.08169369 0.06308763 0.15520747 0.030101126 -0.21966483 0.013464811 0.27875555 -0.12467804 -0.03212214 -0.015717281 -0.22147 -0.17387834 -0.07651254 -0.012647671 -0.021366252 0.08399938 0.041709278 -0.09372096 -0.08811064 -0.01614813 0.0029446834 0.01303736 -0.092955016 -0.06843732 -0.17960723 0.05776044 0.23270246 0.013659726 -0.008487792 0.17876512 0.03360403 -0.0023805557 -0.25928587 -0.06926537 0.10848809 -0.019438196 -0.14206453 0.15038624 -0.1515903 -0.0031805777 -0.03593275 -0.12390281 -0.073336564 0.02810937 -0.11779621 -0.20434828 0.011342797 -0.10419132 -0.04404951 0.17586446 0.100355625 0.091296285 -0.0075162807 0.10655194 -0.04806724 0.026567463 0.02201141 -0.26370418 0.043381885 -0.2388895 -0.17758949 0.12436832 0.10819533 -0.25041658 -0.07928459 -0.14682151 -0.09837017 -0.09465111 -0.009520708 0.020853393 0.060538627 -0.15023376 -0.16512977 -0.0137495715 0.070895106 0.15877536 -0.12562133 -0.20575404 0.19640031 0.026369516 0.10631455 0.019926142 0.11909585 -0.1225658 -0.059995737 -0.040800087 -0.22059761 -0.27486855 0.08582136 0.15884073 0.24119282
8 -0.024721174 -0.09992201 -0.07546491 -0.006970385 0.05717499 -0.04286858 0.10077364 0.060284726 0.119459756 -0.1112071 0.15997912 0.11970364 -0.10059542 -0.17862903 0.08785651 -0.27119443 0.065427214 -0.14874615 -0.005620358 0.11414418 -0.041572757 0.12313178 -0.100191854 0.05848705 0.13618009 -0.00510061 -0.12906729 -0.024424938 0.041331507 0.04707415 -0.10022688 -0.027170341 -0.19616033 0.09722358 0.014111796 -0.23509547 0.20460889 0.06808383 0.07023588 0.14141351 0.010646237 -0.20766316 0.015016079 0.27190557 -0.1191514 -0.024789799 -0.023233963 -0.21087997 -0.15838183 -0.058765594 -0.024812069 -0.022236655 0.07568048 0.055895913 -0.10261848 -0.08008 -0.028756017 0.009303054 -0.0021450405 -0.080728315 -0.064085245 -0.17582154 0.046310678 0.21867214 0.015419849 -0.01655249 0.17218262 0.029876772 -0.015405473 -0.24694772 -0.069840334 0.09567651 -0.01184291 -0.12384998 0.13723034 -0.13884096 -0.0020126114 -0.032220654 -0.110451676 -0.07228577 0.03217556 -0.12047002 -0.19407535 0.012747164 -0.104874715 -0.033324234 0.16268626 0.08937018 0.088256285 -0.011236286 0.1066487 -0.042526238 0.028899536 0.017601434 -0.2501409 0.033414867 -0.22026962 -0.17715248 0.11201327 0.09287908 -0.2245203 -0.082396835 -0.14094979 -0.09289295 -0.07437596 -0.009743434 0.029167032 0.060095284 -0.13936189 -0.15531546 -0.021120876 0.07259702 0.15410025 -0.11398025 -0.20479295 0.17950954 0.02112162 0.097291365 0.00031295465 0.109364085 -0.1252239 -0.06360924 -0.0350512 -0.20160419 -0.25483575 0.07189694 0.15973775 0.21810153
4 -0.023487465 -0.101677895 -0.060498077 -0.029177373 0.035570454 -0.035253968 0.07495391 0.091785565 0.12374338 -0.09871353 0.13407916 0.10559228 -0.05215326 -0.19493608 0.08307411 -0.24269372 0.066290416 -0.1354216 -0.0052420427 0.06477187 -0.04062361 0.07784221 -0.065601595 0.0481062 0.11498274 -0.01899679 -0.10691208 -0.042910248 0.032155905 0.022872606 -0.070991 0.0040704645 -0.17382836 0.05609285 0.010089015 -0.21426097 0.15878855 0.047471087 0.059607465 0.057953373 -0.04587297 -0.18827133 0.05640361 0.24957202 -0.13097268 -0.02467594 -0.022124765 -0.20550916 -0.09589674 -0.02844674 -0.05526808 0.009227766 0.020564834 0.07882464 -0.10640096 -0.0634615 -0.029128902 0.036095746 -0.014928147 -0.043044545 -0.012523198 -0.15957971 0.017745301 0.19067171 -0.00035291095 -0.0138638485 0.1268118 0.035840116 -0.06281682 -0.21664517 -0.05837187 0.085773304 0.027500318 -0.07942716 0.12649536 -0.13251188 0.02549727 -0.006625804 -0.0891995 -0.076396435 0.017233055 -0.10734852 -0.14971308 0.018768141 -0.08602175 -0.0643572 0.12312308 0.052758396 0.08543817 0.011317798 0.11365574 -0.0052024215 0.05385129 0.008944502 -0.22389974 0.041540932 -0.17227048 -0.18601425 0.11794412 0.08472941 -0.1949082 -0.069844104 -0.08966076 -0.06944069 -0.06996372 0.018724384 0.036289632 0.11944827 -0.098757744 -0.11526604 -0.008018895 0.0758996 0.13151188 -0.091976345 -0.19667897 0.12396562 0.035853986 0.07710087 -0.047267236 0.09693215 -0.1252806 -0.036423348 -0.046516117 -0.19016218 -0.2601645 0.07556594 0.16675694 0.19790614
3 -0.026623128 -0.10246483 -0.05857881 -0.026245166 0.035099044 -0.031368885 0.084332116 0.087617755 0.116113946 -0.09941227 0.13650613 0.1033365 -0.06490108 -0.20115647 0.08277548 -0.24869266 0.06897278 -0.13629422 -0.008662552 0.064042635 -0.050248474 0.08538958 -0.064989775 0.050956268 0.11954358 -0.020092176 -0.10831802 -0.04285302 0.035482623 0.035672124 -0.07124791 1.1895343e-05 -0.1811259 0.064596206 0.012104863 -0.21856606 0.16631247 0.051380098 0.057683762 0.06839811 -0.04285674 -0.19193077 0.05280351 0.2536026 -0.1367042 -0.022240596 -0.016548036 -0.21005312 -0.105816804 -0.026735941 -0.05027983 0.005150529 0.017314607 0.07804407 -0.105740905 -0.07118565 -0.034960944 0.033875722 -0.018100947 -0.041052297 -0.025883263 -0.15371887 0.016377302 0.19812292 0.0018722471 -0.023419358 0.13882078 0.036204852 -0.058632907 -0.2235557 -0.054881573 0.0891069 0.018999796 -0.075102575 0.13089693 -0.13329007 0.023757454 -0.008127008 -0.086152986 -0.076864146 0.01802511 -0.100310735 -0.15693122 0.014307961 -0.085641116 -0.056682486 0.12407595 0.05878767 0.07758282 0.00617809 0.11526921 -0.0043190494 0.0554214 0.013418255 -0.23104116 0.04187904 -0.17701955 -0.1795173 0.12026248 0.08552704 -0.19820131 -0.07508736 -0.10480199 -0.07566434 -0.06515465 0.018893559 0.03616721 0.11516396 -0.09750725 -0.123092644 -0.006178524 0.07909044 0.13614978 -0.095359586 -0.19623855 0.12946698 0.030540388 0.08120342 -0.039150737 0.10011183 -0.13109776 -0.048873972 -0.042344872 -0.19005209 -0.26110306 0.07761456 0.16849756 0.19825241
0 0.007967599 -0.14783454 -0.035606414 -0.09682586 -0.07541843 0.03812017 0.043873776 0.13628474 0.12591031 -0.022921871 0.024012525 0.07048812 0.045430757 -0.21882032 0.10768798 -0.15169519 0.051706884 -0.053011306 -0.0136867715 -0.07036048 -0.06310931 -0.04114635 0.058576986 -0.0068102796 0.023612225 -0.042733252 -0.031612143 -0.1281338 -0.053614017 -0.014094066 0.05109211 0.12158615 -0.09363227 -0.057314686 0.024130132 -0.13193227 0.04213672 -0.03704862 0.0117222965 -0.16247587 -0.2190979 -0.08282459 0.11307183 0.15315782 -0.16925217 0.03460177 -0.020538166 -0.1600518 0.08818114 0.068342015 -0.17848921 0.10369935 -0.111570865 0.12336361 -0.08920542 -0.030410957 -0.065931626 0.08444097 -0.06696607 0.05029579 0.08214727 -0.09834312 -0.06341666 0.107202955 -0.045027062 -0.05887204 0.043487452 0.009519356 -0.18779173 -0.123360924 -0.05107795 0.053983074 0.09805333 0.07498829 0.08272269 -0.08414323 0.02952138 0.056429625 -0.03653745 -0.0994239 -0.013662748 -0.04436529 -0.030868296 0.047361016 -0.07018831 -0.11142012 -0.0063772704 -0.025900582 0.04754289 0.04665925 0.17509566 0.0891144 0.16190833 -0.0009739157 -0.1340581 0.027181542 0.0015424752 -0.20387703 0.09550356 0.04195434 -0.051846407 -0.08299041 -0.0074862507 -0.034296248 -0.020674827 0.038530707 0.08125342 0.24911793 0.018281622 -0.0048195426 -0.022095514 0.11660051 0.0741412 -0.06209485 -0.18924765 -0.044461954 0.054833453 -0.0090033235 -0.18491364 0.07282354 -0.15354268 0.0068412353 -0.01095161 -0.113412045 -0.2176499 0.06459605 0.16781117 0.09710129
