17 32
7 0.13036838 -0.50128096 0.0807226 -0.20749193 -0.19473608 0.1564765 0.32394737 0.08281119 0.38881555 0.082672 -0.27368557 0.2234858 -0.085777126 -0.26327536 0.35728055 -0.24596898 0.080472015 -0.262504 -0.03048904 -0.18173581 0.34227422 -0.008886756 0.007618978 0.2685537 0.19178753 -0.055990603 -0.09037486 0.13935448 -0.20911406 -0.011633877 -0.04526432 0.24800813
8 -0.06828628 -0.573013 0.20676692 -0.26393497 -0.12063973 0.099830106 0.25237125 0.058761146 0.32577363 0.098344706 -0.2538358 0.27091855 -0.17467755 -0.17062564 0.3106198 -0.29808846 0.06660551 -0.20083119 0.047355514 -0.23077911 0.3335746 0.13328715 0.081894 0.21090911 0.04420262 0.047414955 0.009792712 0.26357773 -0.2039756 -0.017228747 -0.11989919 0.24597143
3 -0.1597112 -0.3299845 0.15330875 -0.15755795 0.03174277 -0.06558349 0.062106878 0.25930893 0.1614011 -0.13933095 0.0060712886 0.34237772 -0.15398532 -0.26979145 0.27560064 -0.4707504 -0.20031323 -0.18883009 -0.049018074 -0.38262585 0.29346418 0.21331945 0.19724894 0.08759099 -0.123055205 -0.13158247 -0.1156056 0.19492984 0.04275925 -0.04171246 -0.011608432 0.033213362
2 -0.008615155 -0.31610972 0.060797986 -0.12627213 -0.03105097 -0.01102677 0.114231735 0.3229348 0.20809436 -0.15093865 0.008562808 0.35932985 -0.092029065 -0.36666143 0.2988883 -0.43720058 -0.2010874 -0.18220818 -0.07635164 -0.36021063 0.32183102 0.12125402 0.18170285 0.107966006 -0.0732522 -0.20434871 -0.17734055 0.112516664 0.056020826 -0.018233247 0.052718837 0.008928987
11 -0.10922374 -0.4537268 0.17007667 -0.17730972 -0.008550793 -0.09860572 0.018391391 0.3630071 0.2563959 -0.09175524 -0.15082808 0.3661831 -0.14666836 -0.33309367 0.31312084 -0.4743763 -0.035433307 -0.17700312 0.06329487 -0.329582 0.33955398 0.15344873 0.19652495 0.1648681 -0.015167832 -0.11281894 -0.12158583 0.28675234 -0.0745488 0.008458484 0.08224347 0.09040507
1 -0.0023338187 -0.5601812 0.17870338 -0.23918526 -0.123219885 0.0655236 0.23206748 0.166705 0.38755974 0.07094228 -0.28999078 0.25389144 -0.12731011 -0.2697727 0.30729872 -0.30993253 0.13216586 -0.22168612 0.070091635 -0.21029979 0.3402176 0.06000615 0.060049776 0.25594923 0.13385664 0.0039625424 -0.021244792 0.25866356 -0.19458675 -0.0029269194 -0.08801819 0.23373607
4 -0.050901525 -0.30709505 0.07711602 -0.11637382 0.018114718 -0.046849705 0.06451828 0.3166034 0.19686617 -0.16604102 0.0042618685 0.36801615 -0.1134475 -0.30804494 0.30792293 -0.45165697 -0.1957173 -0.19847925 -0.0595341 -0.3500784 0.3255719 0.14924462 0.17364417 0.10575621 -0.06723125 -0.18875962 -0.16957206 0.13693215 0.025980044 -0.040894546 0.052145142 -0.00047729618
5 -0.06996079 -0.26174515 -0.15057097 0.088887826 0.32032105 0.2615108 0.50453246 -0.20666245 0.36872357 -0.3517632 0.35863024 0.26148266 -0.3314385 0.23620918 0.25673413 -0.22136366 -0.3015902 -0.37369093 -0.30816856 -0.13878848 0.227323 0.16927789 -0.13223204 0.22858298 0.070160024 -0.24189653 -0.025134837 -0.49226642 -0.06782901 -0.23766637 -0.44107687 -0.22955966
13 0.041213386 -0.40006652 0.15074006 -0.26419643 -0.21144445 0.0042320853 0.110463746 0.29421145 0.21801412 0.034350626 -0.19760375 0.34070724 -0.017820714 -0.4392157 0.3450148 -0.40179962 -0.14002039 -0.16693068 -0.035282474 -0.40039754 0.38423923 0.09417928 0.20961335 0.105877884 -0.08380925 -0.10550491 -0.14303534 0.29988825 -0.014591333 -0.00411134 0.098617606 0.21354884
10 -0.09870484 -0.27551532 -0.118199795 0.08626546 0.32970217 0.28141177 0.49941713 -0.1201321 0.3954263 -0.37877774 0.36929053 0.2743468 -0.3430343 0.17221494 0.22323792 -0.2301043 -0.2612033 -0.32992205 -0.29039344 -0.16985464 0.22925386 0.15933877 -0.08511444 0.23544963 0.04239201 -0.23390397 -0.016639061 -0.46256295 -0.033415828 -0.22505687 -0.46622053 -0.25485164
12 -0.037496448 -0.37600514 0.10345811 -0.19178465 -0.081221946 0.0024556504 0.10975359 0.26020297 0.220914 -0.069537774 -0.05809505 0.3766711 -0.094323866 -0.3208111 0.3148122 -0.39634487 -0.17782107 -0.17643581 -0.051207148 -0.37180436 0.34741193 0.14525235 0.19541936 0.10452539 -0.08502202 -0.14248392 -0.1329305 0.17867287 -0.0074893483 -0.03847323 0.040644947 0.10178647
15 -0.12223404 -0.1585734 -0.094459794 0.0025317469 0.21658316 0.29452565 0.47437176 -0.20746532 0.26040503 -0.32892445 0.40735072 0.31670135 -0.24544035 0.20345417 0.28324598 -0.2477045 -0.5417649 -0.3628766 -0.45228127 -0.3429577 0.2623917 0.22177944 0.031254847 0.08052123 -0.12952523 -0.23776841 -0.08248829 -0.4546364 0.051576003 -0.32469964 -0.4183536 -0.14237925
14 -0.03657597 -0.5394736 0.17871358 -0.24093118 -0.09427854 0.0559924 0.19715722 0.11802551 0.31415984 0.06236012 -0.26236382 0.28814957 -0.15247366 -0.2075899 0.3222459 -0.31749886 0.06307225 -0.21815827 0.0451717 -0.2362425 0.34578872 0.12260746 0.07974724 0.2306989 0.076720625 -0.0067169904 -0.024720624 0.2514746 -0.20536117 -0.0058913645 -0.046655364 0.21470104
9 -0.088955596 -0.32999998 0.075825945 -0.13062799 0.028993065 0.015251206 0.14022674 0.23324527 0.26264322 -0.14711407 0.0082005495 0.35224175 -0.13868019 -0.23294069 0.278768 -0.39240238 -0.17909074 -0.20338556 -0.090468444 -0.32714042 0.292133 0.16223383 0.16884278 0.108454354 -0.052211147 -0.13241373 -0.11471643 0.07283453 -0.012221139 -0.07731247 -0.057897966 0.042353835
16 -0.1228668 -0.21637185 -0.0938278 0.019235147 0.2530448 0.25609055 0.4695754 -0.19485326 0.33979264 -0.29778296 0.31835923 0.32111064 -0.2859903 0.2578252 0.27001545 -0.22338888 -0.40555784 -0.37364727 -0.36710408 -0.25180647 0.23733899 0.2137755 -0.007133759 0.12663372 -0.014922232 -0.17987956 -0.0073908083 -0.43029907 -0.04951572 -0.32178393 -0.46378985 -0.12791681
6 -0.004129119 -0.19446181 -0.12855028 0.07714675 0.20639223 0.20090798 0.3827963 0.039710917 0.30265197 -0.34159377 0.32443544 0.28951222 -0.2209777 -0.03187844 0.262559 -0.2818378 -0.33003074 -0.30335984 -0.27852482 -0.2514579 0.23696299 0.10322999 -0.009432264 0.1441035 0.013262752 -0.29811236 -0.1175469 -0.38012218 0.0489877 -0.1565015 -0.2541395 -0.21837644
17 -0.008683125 -0.4669402 0.08297249 -0.13765927 -0.040788654 0.115743056 0.30456495 0.0584529 0.38068813 -0.017288491 -0.12496176 0.26320502 -0.1668385 -0.11348563 0.2970997 -0.25919563 0.01866061 -0.27477643 -0.050119217 -0.17080125 0.30043027 0.06574763 0.022167876 0.23390108 0.14115411 -0.0517209 -0.04965785 0.056250144 -0.17150538 -0.050452452 -0.14112036 0.12885569
