10 128
8 0.013265215 -0.15527005 -0.0605326 -0.004299124 -0.014638148 0.020593623 0.096520066 0.08370104 0.14119847 -0.03834152 0.10041383 0.09747799 -0.0663359 -0.15897849 0.15168406 -0.1996331 0.04292662 -0.11846629 0.027972125 0.04354161 -0.055364985 0.023891406 -0.057833903 -0.034207895 0.102637134 -0.008574742 -0.062885754 -0.10998041 -0.04922642 0.042193547 -0.032534678 0.026171751 -0.087724835 0.010783948 0.052444562 -0.18012482 0.15581164 0.050668955 0.013314247 -0.0013296101 -0.1052614 -0.110032365 0.03694329 0.18046762 -0.1418249 0.04894049 -0.01651245 -0.192337 -0.02145238 0.026002117 -0.12168319 0.056993973 0.0113809025 0.054641727 -0.04214772 -0.07015634 -0.06787733 -0.011006633 0.0035473877 -0.11258455 0.03171729 -0.15174861 0.02240328 0.1691904 0.005834269 -0.087895215 0.10107939 -0.0067960233 -0.089938395 -0.20430604 -0.07313238 0.059959758 -0.014084466 -0.01771676 0.123290755 -0.10920205 -0.02869964 0.034661543 -0.11705697 -0.06591477 0.0045010736 -0.07617167 -0.092822246 0.060969476 -0.09952967 -0.090080135 0.13695055 0.036691412 0.060930613 0.00670718 0.16911137 -0.014283983 0.10362961 0.044777013 -0.1657909 0.002990664 -0.09533495 -0.23734136 0.10231732 0.019478671 -0.088151515 -0.117732026 -0.10032926 -0.056451846 -0.062895276 -0.0015020311 0.046837475 0.1202653 -0.06395385 -0.10464237 -0.03457007 0.11113798 0.10985007 -0.08042151 -0.19917606 0.12904884 0.040917724 -0.0011213497 -0.07584314 0.08830158 -0.124694206 -0.048188306 0.031900067 -0.16837685 -0.23245396 0.04534257 0.17185238 0.09989896
1 0.008310424 -0.15367842 -0.06371317 -0.0014872666 -0.004725982 0.014039553 0.09793286 0.09298035 0.14837666 -0.045195356 0.10550748 0.10159856 -0.06438494 -0.17103541 0.14494115 -0.20407517 0.037316155 -0.12269832 0.027218042 0.03911795 -0.05880091 0.02945198 -0.054177508 -0.036557302 0.10772134 -0.012726107 -0.06373972 -0.117931984 -0.040806185 0.04832839 -0.03543195 0.023464572 -0.09390686 0.009398185 0.05675117 -0.18635175 0.15557708 0.05606488 0.002601342 -0.0061884457 -0.10857172 -0.11730397 0.05222274 0.18257959 -0.15543488 0.037784964 -0.0113559775 -0.2022288 -0.016293606 0.02223382 -0.12186628 0.06510481 -0.00081642566 0.059260808 -0.034294743 -0.07559875 -0.06355997 -0.009529962 0.0077578584 -0.11718785 0.03923447 -0.14758638 0.015671931 0.17152916 0.004549476 -0.08744416 0.09848871 -0.00020816234 -0.096840344 -0.20869471 -0.06258507 0.06235761 -0.0074308566 -0.01880676 0.13047731 -0.11713206 -0.021811286 0.04231502 -0.12025983 -0.06407085 -0.0022779093 -0.073430344 -0.097501494 0.04977558 -0.09112492 -0.10354481 0.13993484 0.035529636 0.05872472 0.011899185 0.17395535 -0.012234901 0.110814616 0.053775102 -0.17080463 0.0029121377 -0.09414558 -0.24210915 0.11243121 0.02845302 -0.099753305 -0.1175977 -0.100104965 -0.057582397 -0.068870775 0.009349709 0.042055584 0.1362315 -0.07073975 -0.11125473 -0.021007089 0.109305374 0.11481423 -0.07569506 -0.19529065 0.1302724 0.043730587 0.007928033 -0.07492282 0.08969794 -0.122650586 -0.0500008 0.025997061 -0.1773188 -0.24617517 0.05671021 0.17591082 0.103754885
9 0.010152915 -0.13724469 -0.07055292 0.0012575005 -0.0033542064 0.01596179 0.0908712 0.09245513 0.14171468 -0.047338706 0.10867152 0.10331771 -0.059780642 -0.16970366 0.13594359 -0.19350795 0.028284745 -0.11219992 0.017262593 0.039461594 -0.063966274 0.032961145 -0.045867912 -0.043231063 0.09857064 -0.012162692 -0.066473946 -0.1250808 -0.037516143 0.051603124 -0.02641542 0.021595202 -0.09356996 0.0036141057 0.06256075 -0.17691728 0.15839866 0.058717705 -0.0097801825 -0.00014977096 -0.105175756 -0.11546747 0.0554453 0.17554493 -0.15419917 0.031813547 -0.00617269 -0.20104586 -0.022077871 0.009516955 -0.11299116 0.058399245 -0.00808877 0.053427905 -0.021981495 -0.07600899 -0.059652526 -0.010607427 0.010049248 -0.11685857 0.03989601 -0.13380915 0.012677075 0.16475731 0.011625058 -0.0848152 0.08969994 -0.0019262347 -0.0934786 -0.19826363 -0.053398736 0.07007428 -0.0007553469 -0.020028917 0.13510299 -0.11355891 -0.022827446 0.05224693 -0.12229628 -0.050012074 0.0014033117 -0.06765318 -0.09735345 0.04379159 -0.080935545 -0.09831048 0.13690035 0.03154959 0.05055335 0.0143387 0.16643642 -0.0104346145 0.110315435 0.056908283 -0.16444011 0.0005888561 -0.0872453 -0.22711533 0.10689352 0.030213038 -0.09886907 -0.119986735 -0.096293874 -0.04970418 -0.07136809 0.009952272 0.033060785 0.14057349 -0.07146394 -0.11152871 -0.008581595 0.10609263 0.11365575 -0.076629624 -0.18191324 0.12232104 0.034732625 0.012482749 -0.07008477 0.09110898 -0.11701788 -0.053791516 0.021849623 -0.17386515 -0.2414844 0.06588772 0.17226091 0.1014931
6 0.013873848 -0.13955726 -0.065910734 0.0055678515 -0.0033277385 0.017069979 0.09442624 0.08644302 0.13804764 -0.04415956 0.10280755 0.096582636 -0.06258325 -0.16058001 0.13850975 -0.18719459 0.028363587 -0.11603386 0.021728605 0.03568604 -0.056053072 0.026649289 -0.05232047 -0.037462797 0.10351196 -0.017685484 -0.06166558 -0.12060691 -0.03882004 0.05004109 -0.028533394 0.016238606 -0.086389594 0.005519135 0.0567173 -0.17053817 0.14777979 0.05739171 -0.008572585 -0.0076288073 -0.09964502 -0.103710465 0.0521425 0.16386412 -0.14927042 0.037295856 -0.0041727684 -0.19274624 -0.012241305 0.018299313 -0.11075861 0.06289425 -0.0034837853 0.05124098 -0.022609567 -0.07365689 -0.05589669 -0.015714372 0.01616073 -0.11587818 0.040569883 -0.13006033 0.01775551 0.15989366 0.005905252 -0.083599545 0.08709159 5.9816553e-05 -0.0891432 -0.19782126 -0.054712027 0.06201356 -0.012955952 -0.015275664 0.12758525 -0.10846483 -0.021545108 0.046635877 -0.11698561 -0.05540661 -0.006344303 -0.060045764 -0.08970312 0.04945579 -0.07802016 -0.10193201 0.13450003 0.03300045 0.050274573 0.012475259 0.16605498 -0.011016791 0.10678615 0.054509584 -0.15857923 0.005497283 -0.08458772 -0.22836688 0.10518919 0.026353586 -0.09048983 -0.112683624 -0.09536163 -0.05337746 -0.07213845 0.007931938 0.033331275 0.1308872 -0.06361556 -0.10632687 -0.012720817 0.10554236 0.10501363 -0.0723639 -0.17824975 0.12706503 0.040937096 0.0041399794 -0.06561082 0.08592142 -0.111453556 -0.048562862 0.030256893 -0.17122822 -0.23394233 0.05703787 0.16842693 0.094083935
0 0.011371195 -0.15414824 -0.062342647 -0.0065359576 -0.0114425775 0.019268561 0.09548329 0.08291415 0.14113696 -0.042306323 0.104602836 0.09770011 -0.064019956 -0.16044012 0.14947131 -0.1991503 0.040749624 -0.12045191 0.02340583 0.038449705 -0.05537639 0.02360895 -0.05733431 -0.029319692 0.10043101 -0.014988943 -0.060775656 -0.11616952 -0.047569413 0.039519645 -0.031218333 0.025510939 -0.08911695 0.00836343 0.05640993 -0.18055871 0.15287839 0.053787578 0.00931325 -0.009240442 -0.105439454 -0.11126713 0.0409692 0.17703344 -0.14662163 0.04652775 -0.012959103 -0.19433172 -0.018887278 0.025401322 -0.12068034 0.061325073 0.0037772013 0.050296348 -0.03784866 -0.07265522 -0.06461314 -0.007139162 0.004075964 -0.11015436 0.035025436 -0.14863014 0.020678714 0.16920762 0.0021120973 -0.08713216 0.09743388 -0.0068864822 -0.092584774 -0.20174012 -0.06989158 0.0618587 -0.010232453 -0.01549725 0.12530199 -0.113060385 -0.0246226 0.035222452 -0.11664525 -0.06687782 -0.00020211384 -0.07193141 -0.088219926 0.058850143 -0.095748045 -0.09623957 0.13448289 0.035307016 0.06066415 0.009814636 0.16840027 -0.008534071 0.106249906 0.04551798 -0.1661575 0.0072257877 -0.095335476 -0.23414163 0.10988909 0.023767198 -0.09151626 -0.11519546 -0.09400491 -0.0553723 -0.06745228 0.005079099 0.047584355 0.12948854 -0.060830362 -0.10128728 -0.031238725 0.109547384 0.10830168 -0.08036492 -0.1963279 0.12487058 0.04533649 -9.8923e-05 -0.07339237 0.08816968 -0.12412874 -0.04514975 0.027091645 -0.17241794 -0.23824036 0.05240047 0.16927765 0.10311216
5 0.0165697 -0.14692587 -0.07238033 0.0027270105 -0.00381989 0.017511768 0.09993593 0.078891955 0.14472999 -0.04624259 0.105235904 0.10171076 -0.068629846 -0.15785997 0.14569955 -0.19455415 0.029824307 -0.1193287 0.020059556 0.04390541 -0.05210302 0.031820342 -0.059175424 -0.0298373 0.10577147 -0.017869556 -0.06589435 -0.120657235 -0.044678763 0.04626996 -0.032063976 0.018337054 -0.09131916 0.009120415 0.0571873 -0.17663524 0.15201764 0.05537646 -0.0031326455 -0.00053746294 -0.094737515 -0.10591257 0.04177286 0.16971119 -0.14737132 0.04202867 -0.007339959 -0.19162615 -0.017691407 0.015348191 -0.114112414 0.0637746 0.009493697 0.047488224 -0.026217978 -0.07417289 -0.05597256 -0.018725123 0.017550286 -0.119342655 0.032953437 -0.13996893 0.02416094 0.16707046 0.0029309643 -0.0825238 0.09809293 -0.002195525 -0.08331155 -0.20402433 -0.064204626 0.06390189 -0.019519374 -0.022835331 0.12735227 -0.11087977 -0.02992374 0.038122073 -0.12202052 -0.06312671 -0.0041182153 -0.063939944 -0.09549054 0.0539951 -0.08946827 -0.101069815 0.13753389 0.04102024 0.05473827 0.010557519 0.17069127 -0.01670087 0.10711314 0.052599914 -0.16437995 0.0058404454 -0.091978535 -0.23329392 0.10468227 0.029576432 -0.09632927 -0.11375402 -0.10340886 -0.060253818 -0.073801756 -0.001294579 0.036736205 0.12252531 -0.0689243 -0.10837421 -0.02290409 0.10825197 0.107996725 -0.08125299 -0.1879523 0.13297734 0.042997357 0.0034375852 -0.06335094 0.09073341 -0.115984276 -0.045664813 0.033839665 -0.1727701 -0.23547415 0.054100655 0.16655925 0.10289499
4 0.012981433 -0.1317273 -0.06374543 0.0029702631 -0.002455781 0.0133104585 0.086424686 0.08433855 0.13445508 -0.04457641 0.10059797 0.094350845 -0.056878354 -0.15365326 0.13236314 -0.18207946 0.03053656 -0.112676874 0.02109829 0.0391957 -0.050377384 0.025939628 -0.05303834 -0.03317651 0.099706605 -0.014506247 -0.063080564 -0.109922536 -0.03577867 0.04232835 -0.030256275 0.016480658 -0.08550623 0.005818396 0.05073402 -0.16607086 0.14358039 0.05355291 -0.0015089478 -0.0027661838 -0.093554825 -0.104465455 0.04883076 0.16420619 -0.13805093 0.033388652 -0.007996562 -0.18506105 -0.01702229 0.0141066555 -0.10482896 0.05599878 0.002308568 0.050991934 -0.028655149 -0.06700009 -0.05225665 -0.012955725 0.014591173 -0.1092732 0.039023194 -0.13129413 0.01947329 0.15494536 0.0069141164 -0.0740858 0.083771475 0.0013657985 -0.08364903 -0.19056863 -0.056228682 0.060952354 -0.009133681 -0.021101749 0.121991344 -0.1049263 -0.019297397 0.042276196 -0.11308484 -0.053424384 -0.001802097 -0.06485578 -0.088594854 0.04972315 -0.07819257 -0.0954485 0.13047506 0.03147527 0.05330711 0.01274934 0.15559985 -0.012673745 0.097475395 0.04759758 -0.15444963 0.006583909 -0.08656887 -0.22010064 0.09909804 0.026096547 -0.09161884 -0.105616696 -0.08859695 -0.04930357 -0.07009732 0.005891662 0.03169805 0.12296961 -0.0637457 -0.10150806 -0.013951177 0.09983291 0.1015977 -0.07118631 -0.17462078 0.12250609 0.038744777 0.0058383336 -0.064986676 0.08340093 -0.10715128 -0.04295477 0.024263924 -0.16523592 -0.22579576 0.053077314 0.16275668 0.09682564
7 0.016915167 -0.14804372 -0.06656743 -0.0018003088 -0.010731314 0.019695666 0.09646638 0.08343351 0.144197 -0.04266323 0.09804991 0.0969437 -0.06304736 -0.16104998 0.14673659 -0.19195572 0.0363969 -0.118188396 0.022021767 0.038402017 -0.0510688 0.02364751 -0.05583707 -0.028048936 0.10630998 -0.017622793 -0.06489658 -0.1151933 -0.046371333 0.041652735 -0.029531427 0.024761098 -0.08966638 0.005490964 0.05030284 -0.1750854 0.144891 0.04839373 0.0027008182 -0.00874939 -0.103760764 -0.10434921 0.04446436 0.17242861 -0.14394844 0.044679742 -0.009515966 -0.18887265 -0.011488482 0.02339872 -0.11860013 0.06510175 0.006012468 0.055642962 -0.03621084 -0.068456 -0.058971208 -0.015281196 0.013424752 -0.10839226 0.03658748 -0.141222 0.02158668 0.16533734 0.001260889 -0.08134893 0.096229896 0.001361873 -0.0875606 -0.20251124 -0.066368915 0.061602566 -0.017562969 -0.016101247 0.12334475 -0.107589155 -0.025799474 0.03854023 -0.11513847 -0.066849545 -0.0023848237 -0.06416588 -0.091229945 0.058521003 -0.0910085 -0.10058433 0.13005951 0.037089195 0.054859485 0.012232195 0.17058042 -0.013108832 0.107391044 0.047357712 -0.16214445 0.008287305 -0.08728955 -0.23549503 0.10120397 0.025493402 -0.09217974 -0.11005387 -0.10025617 -0.057962984 -0.06861029 -0.00069840235 0.037942626 0.12357973 -0.060298614 -0.10241728 -0.024396094 0.11034155 0.10413379 -0.07907383 -0.1906965 0.12640333 0.04283793 -0.0008892816 -0.07277419 0.08970493 -0.11870972 -0.041267402 0.033863276 -0.16718663 -0.23363054 0.047517214 0.16982807 0.10169198
3 0.010442268 -0.14939609 -0.0659358 0.0017850568 -0.0052199676 0.017479211 0.100741625 0.08942628 0.14354342 -0.047182817 0.10925946 0.10065393 -0.06977251 -0.17200725 0.14616758 -0.20397547 0.037575368 -0.123839915 0.022555985 0.040162057 -0.061461356 0.031251274 -0.056642212 -0.033635963 0.11063061 -0.01589913 -0.06703015 -0.119630635 -0.039667428 0.052369144 -0.033565782 0.019228365 -0.09685495 0.011232047 0.057172213 -0.18584178 0.15973096 0.059204318 -1.593841e-05 -0.0005268419 -0.10441471 -0.11693413 0.04994211 0.18284494 -0.15519935 0.040110793 -0.0068771797 -0.20419101 -0.022415264 0.020697024 -0.11597213 0.061337132 -0.0007839397 0.05601828 -0.033032823 -0.0779063 -0.06361584 -0.01312651 0.010420717 -0.11630786 0.034455292 -0.14289936 0.018756647 0.17473665 0.006796065 -0.08935506 0.10090075 0.00049877865 -0.091569595 -0.21183275 -0.061348166 0.06672923 -0.014052265 -0.017678035 0.13420811 -0.11611131 -0.022535834 0.04326418 -0.1201403 -0.062119666 -0.0015030147 -0.067684695 -0.0991701 0.051930502 -0.08883599 -0.10013129 0.14109865 0.03790657 0.05441365 0.010639469 0.17270595 -0.011917217 0.109449886 0.054238886 -0.17300631 0.0065483805 -0.09673162 -0.23788035 0.11162255 0.027992599 -0.10085875 -0.11875711 -0.105615385 -0.05830156 -0.07074195 0.007667076 0.038425922 0.1328416 -0.0671506 -0.11370734 -0.017974546 0.11157879 0.11405862 -0.07944966 -0.19341303 0.1344977 0.040723693 0.007448813 -0.068987876 0.09249297 -0.123403005 -0.053655613 0.028827446 -0.1786995 -0.24728012 0.057762306 0.17776898 0.10539095
2 0.015557284 -0.14242893 -0.06414029 -0.0009476587 -0.008153923 0.017258178 0.093624935 0.087327935 0.13449477 -0.042834267 0.099102795 0.09800883 -0.058983274 -0.16123931 0.13879426 -0.19186513 0.031609293 -0.11226748 0.021904174 0.03766249 -0.05403532 0.026719188 -0.049372986 -0.034863822 0.09778837 -0.014632027 -0.06373023 -0.11373893 -0.038668633 0.046266146 -0.026657224 0.019688863 -0.090331264 0.009787104 0.050550032 -0.16965318 0.14819612 0.05001255 0.0017136113 -0.0062924135 -0.09915225 -0.10372069 0.048633486 0.16849202 -0.14638615 0.03830126 -0.0111889765 -0.19065134 -0.014510961 0.01742597 -0.11232763 0.056402072 0.002815331 0.05650593 -0.034429684 -0.07044464 -0.056502756 -0.008769354 0.008121511 -0.10711284 0.03472409 -0.13440154 0.017471477 0.1579612 0.0044716806 -0.07885097 0.08987975 -0.003049323 -0.09191407 -0.19763047 -0.06131175 0.060536202 -0.007270403 -0.017516786 0.12258792 -0.10505933 -0.021544557 0.039927088 -0.11380396 -0.059611026 -0.003301601 -0.06808894 -0.09345892 0.052259192 -0.08243779 -0.092981495 0.13095625 0.032986887 0.056971744 0.008785031 0.1655539 -0.008601172 0.104031615 0.045618124 -0.16292107 0.0056457208 -0.08871704 -0.22890447 0.10001973 0.02782965 -0.08795655 -0.11391036 -0.09287574 -0.056773726 -0.06777755 0.0016899616 0.041240185 0.12992898 -0.066119745 -0.102828175 -0.02233314 0.106810965 0.10719173 -0.07599478 -0.18593517 0.12266819 0.04095115 0.005386527 -0.072295666 0.08478442 -0.11609741 -0.048279483 0.029201962 -0.17032804 -0.22889522 0.05442821 0.17041287 0.097388916
