10 128
6 0.02430613 -0.09414368 -0.04817182 -0.03244676 -0.0062618568 -0.0017671884 0.07107324 0.123500966 0.1083026 -0.08152476 0.073787436 0.069800295 -0.00065388775 -0.21840137 0.09227734 -0.18420121 0.057824854 -0.1271163 -0.012710658 -0.018769357 -0.014087115 -0.0031824128 -0.03217061 0.06443835 0.12254949 -0.08064839 -0.09201168 -0.06614739 0.023804951 0.0060183886 -0.0127765285 0.018556073 -0.14756952 0.007826759 -0.038538404 -0.15218899 0.06036107 -0.0003098067 0.029487988 -0.07817104 -0.10156561 -0.101594396 0.11826271 0.18152252 -0.1425179 0.00015517953 0.0027938602 -0.18116802 0.032227166 0.033326037 -0.07657396 0.061880443 -0.03783901 0.12816036 -0.12654038 -0.031228524 -0.0022497154 0.038187966 0.009937664 0.03550739 0.049898453 -0.092110306 0.0032604563 0.13852766 -0.04115559 0.006533203 0.0606735 0.071229994 -0.108082734 -0.20286359 -0.042529687 0.06359901 0.01505135 0.006012701 0.0983433 -0.08729715 0.06911294 0.023392122 -0.038352374 -0.104274504 -0.037570372 -0.033511396 -0.08802809 0.06279986 -0.028836709 -0.11790041 0.0509783 0.015501272 0.0642287 0.034987103 0.14367193 0.05005253 0.08759812 -0.017695867 -0.18802623 0.09162177 -0.08979027 -0.21586618 0.094065614 0.07285153 -0.12646748 -0.032828458 -0.04675743 -0.07092441 -0.079690605 0.022641808 0.026462782 0.17268999 -0.00607017 -0.052067507 0.014761081 0.105524845 0.067856506 -0.06817471 -0.17803116 0.0770967 0.06691686 0.018802945 -0.10154226 0.0797751 -0.11280098 0.011383128 -0.0025211743 -0.17711861 -0.24914855 0.05048285 0.20046334 0.15663856
8 0.025723757 -0.09714678 -0.049073443 -0.034113176 -0.007472601 -0.0028504438 0.07101468 0.12617037 0.1114605 -0.082717456 0.07614855 0.073193125 -0.0003135301 -0.22063491 0.0964463 -0.19125521 0.061723348 -0.13012663 -0.0105685005 -0.012954747 -0.0121576395 -0.002698416 -0.035857808 0.0649524 0.12473083 -0.07780162 -0.096627645 -0.06233208 0.023375187 0.0032134894 -0.015432941 0.01932416 -0.1511387 0.0102120815 -0.04188551 -0.1570905 0.06591022 -0.0016036216 0.036998224 -0.07352793 -0.101408675 -0.106099635 0.11645196 0.19074874 -0.14062361 0.00092311244 -0.0021553333 -0.18479443 0.027538618 0.031847123 -0.07827763 0.057916194 -0.030348614 0.1317872 -0.1349424 -0.02948346 -0.0032001862 0.039422605 0.008427525 0.034617312 0.04893769 -0.10105346 0.0065524457 0.14266919 -0.039821956 0.009332256 0.063817784 0.070913784 -0.108576514 -0.20882167 -0.04881598 0.06479501 0.016256157 0.0005063127 0.09933391 -0.08858248 0.068600915 0.020811979 -0.041235726 -0.10650385 -0.033835147 -0.042163115 -0.0929601 0.06746013 -0.03436986 -0.115449294 0.055640772 0.016550392 0.0707124 0.03384984 0.14505835 0.047641624 0.085040614 -0.021891434 -0.19398315 0.09219654 -0.096792474 -0.2230311 0.09272655 0.072862305 -0.12947848 -0.034651585 -0.0475479 -0.072072625 -0.08065546 0.018673323 0.028955048 0.17113413 -0.010200167 -0.05400635 0.009829067 0.10776534 0.07119546 -0.07178144 -0.1868783 0.08157026 0.06723675 0.019337038 -0.10566161 0.08174118 -0.11625151 0.012029599 -0.003402164 -0.181402 -0.2528987 0.048289478 0.20620061 0.16253099
2 0.027164806 -0.103434734 -0.04452416 -0.03875648 -0.00981434 -0.0013572184 0.083616026 0.12554981 0.09896465 -0.07908228 0.058141813 0.07018531 -0.00044443595 -0.22778146 0.085432895 -0.19169627 0.053162035 -0.11812825 -0.012911257 -0.02787134 -0.013963989 0.0033550628 -0.017340407 0.07035928 0.116384044 -0.08428646 -0.090450205 -0.060937546 0.030827088 0.015932936 -0.006826998 0.019713785 -0.15880378 0.021238498 -0.049816974 -0.14633784 0.04963856 -0.015824743 0.0326935 -0.085817 -0.09991148 -0.09122521 0.121988855 0.17531103 -0.15415108 -0.0017978938 -0.000541642 -0.17626727 0.04539746 0.03638759 -0.079552434 0.06275962 -0.03812273 0.14377697 -0.13737276 -0.03360074 0.0012432612 0.047815304 -0.0005390453 0.0538321 0.034829844 -0.08086698 -0.006258124 0.12969944 -0.052439433 0.010142249 0.069438204 0.071209766 -0.11799587 -0.20567155 -0.041680004 0.054690763 0.018497273 0.012218579 0.08667739 -0.0787759 0.07121154 0.01214024 -0.026089935 -0.11755423 -0.04844396 -0.030245325 -0.09912452 0.054331355 -0.024125017 -0.11085313 0.03712909 0.019924844 0.065910995 0.026139062 0.1541964 0.05898082 0.09463094 -0.023611914 -0.1972141 0.091193035 -0.08660638 -0.21673793 0.088035725 0.08478982 -0.11998473 -0.034980204 -0.053345464 -0.091666706 -0.06970769 0.014173238 0.04048885 0.17807999 -0.012259608 -0.050001785 0.004539297 0.10906213 0.07255746 -0.06854383 -0.18307981 0.06902273 0.070965655 0.02582465 -0.108270176 0.07461599 -0.11884902 0.004711114 0.00611996 -0.17526382 -0.23699257 0.050595082 0.2025646 0.15326026
7 0.032431 -0.106420085 -0.048388947 -0.04432743 -0.018003214 0.0057521053 0.09221924 0.120803446 0.10076302 -0.07815743 0.04465974 0.06691764 -0.0030405412 -0.23594369 0.08589116 -0.18843134 0.053806946 -0.113212265 -0.021473685 -0.036731895 -0.013553774 0.0035983543 -0.0092178695 0.084427245 0.12023898 -0.093329735 -0.093150675 -0.06258291 0.026632378 0.017912181 0.0009197745 0.029036693 -0.16701321 0.019465253 -0.057257522 -0.14329936 0.034940515 -0.030328972 0.0287982 -0.093700185 -0.1061875 -0.08285058 0.12150457 0.17273517 -0.15735818 0.0036486725 0.004864307 -0.16779697 0.057197038 0.042514883 -0.08514287 0.07310528 -0.04173398 0.15244006 -0.14300591 -0.03119235 0.0016890337 0.04471047 0.0005652012 0.0724161 0.026403625 -0.0712403 -0.010195405 0.13041982 -0.062015116 0.010580317 0.08055819 0.0798264 -0.11603717 -0.20787789 -0.041781846 0.055591818 0.008116066 0.022332143 0.08164081 -0.072618335 0.06758636 0.008634517 -0.01615232 -0.13080402 -0.052336458 -0.013966762 -0.102314055 0.054624315 -0.02634106 -0.11348856 0.018595261 0.026428618 0.055435624 0.027534664 0.16402036 0.062141567 0.10520806 -0.02451746 -0.19799457 0.09614376 -0.07528017 -0.21510684 0.08075265 0.09051925 -0.12122534 -0.029659988 -0.06821945 -0.10328477 -0.063149035 0.005469637 0.038346335 0.17492935 -0.0025611054 -0.04594044 0.0038379363 0.11601962 0.06820771 -0.07416818 -0.18423833 0.060562685 0.0697669 0.023229036 -0.11186962 0.080061086 -0.12491806 0.009213552 0.01726415 -0.16354401 -0.23177788 0.04430366 0.20124875 0.15653117
1 0.023386572 -0.10943188 -0.036103062 -0.0434545 -0.011886924 -0.0017522475 0.09008754 0.1212041 0.094874285 -0.07532082 0.043819446 0.062195927 -0.003140253 -0.22883722 0.07967263 -0.18986508 0.0564 -0.11535826 -0.011392698 -0.037719414 -0.012187694 0.0039056917 -0.0114489775 0.08171606 0.11795988 -0.087808326 -0.08441874 -0.051757414 0.032899626 0.018365169 -0.008043301 0.023683457 -0.1611758 0.027062029 -0.0579849 -0.14376406 0.03341067 -0.02612082 0.036445297 -0.093334265 -0.10090291 -0.08543854 0.12076153 0.16979077 -0.15534188 -0.0009741342 0.0005691671 -0.16548418 0.05581565 0.04699953 -0.08193668 0.06987128 -0.041303765 0.15109333 -0.14421022 -0.03251524 0.0005559356 0.050709173 -0.005763115 0.069294125 0.025721615 -0.07443807 -0.012580245 0.12604743 -0.062474515 0.009610576 0.078116424 0.07669691 -0.11807907 -0.20336053 -0.039715026 0.045899212 0.012987438 0.020968596 0.07541106 -0.07432118 0.07335304 0.0022274451 -0.011925862 -0.1297999 -0.054861262 -0.021491798 -0.0988443 0.04802568 -0.024593858 -0.11014061 0.022312203 0.02419021 0.061147943 0.023401646 0.1564312 0.062371843 0.0974492 -0.025098292 -0.1958013 0.092449054 -0.08074932 -0.21126199 0.08648816 0.08814647 -0.118299775 -0.027064824 -0.06021133 -0.10215339 -0.05842054 0.013754213 0.045295108 0.17191522 -0.006693736 -0.045296166 -0.00036828057 0.107763164 0.069314286 -0.06417752 -0.18074548 0.061820913 0.07368183 0.026592944 -0.10843961 0.07062243 -0.12071318 0.0063289166 0.010870039 -0.16360702 -0.2262529 0.043118235 0.19499332 0.14963539
5 0.02817699 -0.1086012 -0.04814198 -0.04028674 -0.0073204455 -0.0022207857 0.09248452 0.12025023 0.10343105 -0.082267806 0.05381978 0.070373446 -0.0054416545 -0.230993 0.0849323 -0.19442742 0.051440977 -0.120870404 -0.016192816 -0.031031625 -0.010155126 0.008202165 -0.017982788 0.0831644 0.12233034 -0.09223736 -0.09138933 -0.061916284 0.031205077 0.01736988 -0.008749621 0.02047644 -0.1658958 0.024703007 -0.053015172 -0.14869094 0.040810432 -0.02082686 0.03034053 -0.089565456 -0.096982345 -0.088436164 0.12143637 0.17307474 -0.15910475 -0.0015832346 0.003065111 -0.17248704 0.052472226 0.03844205 -0.08132894 0.07230053 -0.036683254 0.14595464 -0.1383019 -0.035253353 0.0054758918 0.045242105 0.003508108 0.059253957 0.028661285 -0.07795983 -0.0064821844 0.13237804 -0.061749976 0.012149513 0.07870411 0.077062845 -0.115072586 -0.21060725 -0.04155677 0.053137086 0.009937946 0.013070311 0.08362431 -0.07948987 0.06968396 0.0052452325 -0.02264043 -0.12897831 -0.05578828 -0.02145994 -0.10329215 0.051387783 -0.025601871 -0.11783803 0.030587949 0.027650144 0.06309602 0.026472265 0.16131772 0.0586046 0.10014137 -0.022031136 -0.20115227 0.09519116 -0.0855992 -0.21852966 0.089769945 0.09313393 -0.12678218 -0.029538281 -0.06296507 -0.10328099 -0.06993847 0.010796664 0.040612787 0.17538317 -0.012318947 -0.050283536 0.00285328 0.11061191 0.071805656 -0.07115787 -0.18435897 0.07021592 0.07572256 0.027326826 -0.10452543 0.07696992 -0.12033668 0.008672287 0.011703615 -0.1739057 -0.23762041 0.049156412 0.19906655 0.15857963
3 0.019652156 -0.08704624 -0.0460353 -0.031406824 -0.0064073554 -0.0011642704 0.06561326 0.12465575 0.105724744 -0.085908204 0.08682859 0.06807933 -0.00439296 -0.22197479 0.095288105 -0.18908618 0.068966426 -0.1347249 -0.015452522 -0.012954992 -0.019726882 -0.0039997133 -0.040899675 0.066850916 0.12876195 -0.07841374 -0.09800075 -0.062102225 0.026196012 0.0038761667 -0.016909251 0.016012382 -0.15122339 0.007626084 -0.036886193 -0.16128968 0.07408238 0.009233806 0.03607036 -0.06575032 -0.101501904 -0.11637702 0.11588594 0.1976333 -0.13684292 0.0008001853 0.0043814755 -0.19077988 0.0123067815 0.032219112 -0.06932149 0.051462132 -0.038931962 0.12426476 -0.13261895 -0.031768367 -0.008337709 0.03837799 0.008341367 0.0351623 0.049488135 -0.09976295 0.008266015 0.1505862 -0.032021012 0.0036421835 0.06274372 0.072936624 -0.10218903 -0.20812382 -0.044080667 0.073111966 0.014131899 0.00317744 0.10831037 -0.093234025 0.07323699 0.026768437 -0.04047629 -0.0979579 -0.026816202 -0.038287096 -0.08840969 0.0684338 -0.032334235 -0.111869395 0.05912137 0.01426617 0.064075135 0.03664516 0.13449903 0.04921496 0.07944818 -0.01949675 -0.19336677 0.096754394 -0.102116056 -0.2117928 0.09879294 0.06703248 -0.13581629 -0.033512708 -0.047380805 -0.060953468 -0.08193062 0.028665794 0.02100914 0.16980754 -0.00030124738 -0.056263246 0.020254252 0.106096745 0.06943037 -0.07208295 -0.18070515 0.083656035 0.060828004 0.019626066 -0.09769105 0.08517821 -0.116798595 0.008425986 -0.011370806 -0.18169333 -0.26070887 0.051660094 0.20652734 0.16626656
4 0.021574914 -0.08164854 -0.052379783 -0.027757296 0.0016785461 -0.00898678 0.05444354 0.12843296 0.11606778 -0.08951914 0.09579014 0.075155415 0.0047441 -0.21244976 0.09607431 -0.18621199 0.063817866 -0.13856037 -0.01100714 -0.0022505955 -0.010507018 -0.006125702 -0.049504884 0.058782317 0.127264 -0.07383005 -0.10040145 -0.0639156 0.025449922 -0.0072870087 -0.022540998 0.012569163 -0.14381583 0.00067135313 -0.033236146 -0.16148649 0.07860009 0.015618529 0.03581452 -0.06346339 -0.09648045 -0.119696304 0.11795523 0.19780704 -0.1295864 -0.005498302 -0.000938358 -0.19257584 0.0105428295 0.021590794 -0.068163194 0.05003853 -0.029933764 0.11784853 -0.12651859 -0.027018284 -0.00080686016 0.0359904 0.017157804 0.01834164 0.06437603 -0.11046499 0.015153831 0.1475572 -0.027343128 0.013649093 0.049355462 0.07072632 -0.10079156 -0.20461547 -0.046777584 0.07402773 0.022033658 -0.0117146205 0.11105951 -0.09749571 0.073176995 0.03127152 -0.053245932 -0.08928794 -0.024199188 -0.051264185 -0.085138515 0.07205984 -0.032356832 -0.11968157 0.071662925 0.009419618 0.07450918 0.041922882 0.12889569 0.041549455 0.07252185 -0.01985547 -0.18839653 0.09432467 -0.105876215 -0.21921246 0.09964828 0.06597806 -0.13909613 -0.031423446 -0.03240336 -0.050427403 -0.094000384 0.029906934 0.016110787 0.1712482 -0.010252847 -0.05622629 0.022770971 0.10008538 0.06874564 -0.06969725 -0.17978421 0.08900369 0.06421857 0.01918052 -0.098010466 0.083863646 -0.10698465 0.017673554 -0.019536551 -0.18967442 -0.2659594 0.05425162 0.20578578 0.16927326
0 0.023516452 -0.09694262 -0.049196478 -0.038971763 -0.012296558 0.0022659292 0.0690403 0.12396805 0.10928947 -0.08440531 0.082952775 0.07137326 -0.0014514761 -0.22420032 0.10102094 -0.1926604 0.06788615 -0.13259366 -0.01738533 -0.016626796 -0.018074548 -0.006314276 -0.036927298 0.06983734 0.12307667 -0.08164812 -0.096467644 -0.06822346 0.019441374 -0.00045660115 -0.011569424 0.023259081 -0.15276471 0.005859496 -0.03629732 -0.16125436 0.07046538 0.0024942209 0.03795674 -0.07678707 -0.10766012 -0.111900195 0.114530176 0.19603038 -0.14187135 0.0060073584 0.0012193175 -0.1898173 0.020906763 0.035133567 -0.07916292 0.057386596 -0.03864243 0.12594606 -0.13589382 -0.031729747 -0.008825094 0.043130722 0.0040954677 0.040056933 0.049247738 -0.102749616 0.006684877 0.1498984 -0.038854536 0.0031990407 0.06495438 0.068553045 -0.10952443 -0.20837618 -0.050371155 0.07191021 0.017499886 0.0068125767 0.10535031 -0.092882484 0.06999882 0.022902891 -0.040598936 -0.10658192 -0.030024482 -0.038996086 -0.08691164 0.07227608 -0.037684705 -0.11446146 0.053673312 0.014858473 0.06814619 0.036367405 0.14314112 0.054137096 0.087108076 -0.023138093 -0.19591786 0.09737564 -0.099347755 -0.21816638 0.09942144 0.070163555 -0.13167399 -0.036229186 -0.045459922 -0.066481255 -0.08148301 0.024173 0.030068118 0.17724681 0.00061072304 -0.05068124 0.0106220655 0.11081431 0.0700227 -0.07699424 -0.18942174 0.077101946 0.06628035 0.016107414 -0.10568506 0.08602479 -0.12295841 0.012114036 -0.007972558 -0.18277168 -0.2612999 0.052319597 0.20734009 0.16794983
9 0.020079138 -0.092621736 -0.052279744 -0.034601256 -0.002824425 -0.0051400466 0.06709785 0.12478056 0.11443666 -0.08554299 0.08184725 0.07490059 7.108227e-06 -0.22040108 0.091750845 -0.18885602 0.058892924 -0.12866938 -0.014814209 -0.012671058 -0.016637377 0.0016085079 -0.033904746 0.062978454 0.1215179 -0.07677335 -0.095225 -0.06839693 0.023737008 0.003120592 -0.01606041 0.020877335 -0.15097047 0.005977852 -0.03260502 -0.15957779 0.06881152 0.0041445508 0.03020738 -0.07065963 -0.10214606 -0.11282212 0.11771024 0.19094726 -0.14279881 -0.0039976966 0.0011611155 -0.1865836 0.022257313 0.026233654 -0.07709058 0.059793197 -0.037443567 0.1247857 -0.124549605 -0.03256511 -0.0038326264 0.039843217 0.008686464 0.02983337 0.05108908 -0.099837996 0.0033258894 0.14460729 -0.037187487 0.006760621 0.0626825 0.06999911 -0.107190974 -0.20334853 -0.04332671 0.0694805 0.021472607 -0.0016005004 0.10437328 -0.09413891 0.06753451 0.025432147 -0.044917304 -0.10065212 -0.031413257 -0.040821373 -0.091586955 0.06005249 -0.033716876 -0.11830018 0.05645548 0.01578207 0.06652474 0.03769805 0.14139009 0.047102537 0.087115824 -0.015347051 -0.19123082 0.08897277 -0.095413454 -0.21536718 0.09839831 0.07503433 -0.13637134 -0.035160094 -0.04598127 -0.06632115 -0.08219296 0.025531603 0.024794884 0.1756769 -0.012468526 -0.056024134 0.017103337 0.103505164 0.07305714 -0.07117465 -0.1805247 0.07750317 0.06449018 0.023974417 -0.10083295 0.083839804 -0.11462657 0.011283217 -0.010923437 -0.18031313 -0.25700784 0.055987448 0.19996169 0.16477826
